Layer: network.conv0.weight
[[[[-2.6077e-02  5.1422e-02 -8.0383e-02]
   [ 1.8402e-02  1.5894e-01 -6.0455e-02]
   [-1.9897e-02 -5.3192e-02  8.2874e-04]]

  [[ 9.4452e-03 -1.9885e-01  5.6610e-02]
   [-1.8921e-01  1.6711e-01  1.2341e-01]
   [ 5.9387e-02  1.4197e-01 -1.7126e-01]]

  [[ 5.6229e-03 -3.4497e-01  1.7480e-01]
   [-2.8564e-01  4.6883e-03  2.5464e-01]
   [ 7.9773e-02  2.3547e-01 -1.1810e-01]]]


 [[[ 1.1604e-02 -5.0545e-03 -4.3854e-02]
   [-1.6769e-02  2.3508e-04  1.3391e-01]
   [ 2.0493e-02 -1.7136e-02 -8.2825e-02]]

  [[-3.1376e-03  3.8099e-04 -1.9043e-01]
   [-6.9046e-04  1.4778e-02  3.0078e-01]
   [ 5.0316e-03  1.5930e-02 -1.3391e-01]]

  [[ 6.0425e-03 -2.6047e-02 -1.5088e-01]
   [-7.3967e-03  3.7506e-02  2.9590e-01]
   [ 4.7755e-04 -2.6352e-02 -1.2134e-01]]]


 [[[-7.1983e-03 -2.3453e-02 -9.2850e-03]
   [ 8.9111e-03  6.1279e-02 -1.3039e-02]
   [-3.6804e-02  2.3102e-02 -2.7496e-02]]

  [[ 8.1599e-05  3.7937e-03  4.4067e-02]
   [-1.2293e-03 -3.2617e-01 -7.0801e-02]
   [ 7.9041e-02  1.2622e-01  1.3184e-01]]

  [[ 6.6650e-02 -4.3335e-02  4.3457e-02]
   [ 2.5597e-03 -2.8882e-01  1.1009e-02]
   [ 5.3467e-02  6.7871e-02  4.7455e-02]]]


 [[[-6.1493e-03  2.7634e-02  8.4167e-02]
   [ 5.3955e-02 -1.8005e-01 -1.4685e-01]
   [ 5.5908e-02  1.6040e-01  7.5378e-02]]

  [[ 6.9763e-02  6.1798e-02 -1.5884e-02]
   [-3.5553e-02 -1.6199e-01  4.0588e-02]
   [-2.9999e-02  2.2974e-01  8.7357e-03]]

  [[-5.8441e-02  2.4261e-02 -1.1420e-01]
   [ 6.5536e-03  1.8018e-01  2.1130e-01]
   [-5.9357e-02  4.0497e-02 -1.4563e-01]]]


 [[[ 6.3210e-03 -1.7102e-01  4.3915e-02]
   [-1.0773e-01  1.7664e-01  9.7717e-02]
   [ 5.0125e-03 -8.3679e-02  6.4819e-02]]

  [[ 4.1199e-02  3.1860e-02 -2.3621e-02]
   [-4.5166e-02  1.6760e-01 -1.5344e-01]
   [ 6.5796e-02 -1.5327e-02 -5.5969e-02]]

  [[-4.7974e-02  1.8921e-01 -6.2744e-02]
   [ 1.3013e-01  9.0881e-02 -1.9373e-01]
   [-1.8494e-02  8.9417e-03 -5.9204e-02]]]


 [[[ 3.9673e-02 -7.2876e-02  4.3518e-02]
   [ 5.5771e-03  6.3660e-02 -2.9739e-02]
   [-1.4771e-02 -1.1047e-01  8.3557e-02]]

  [[ 8.9798e-03 -2.7924e-02  2.0035e-02]
   [ 2.8854e-02  4.1479e-01  6.8604e-02]
   [-2.9877e-02 -3.0322e-01 -1.8469e-01]]

  [[-2.5925e-02  4.8096e-02 -4.0649e-02]
   [ 1.9180e-02  3.0127e-01  7.6294e-02]
   [-1.7614e-03 -3.1982e-01 -5.5969e-02]]]


 [[[ 1.0788e-02  1.3494e-04 -4.7485e-02]
   [-1.1261e-02  3.9398e-02  1.3318e-01]
   [-2.7771e-02  1.0536e-02 -2.2385e-02]]

  [[-2.0695e-03  1.0735e-02  6.1523e-02]
   [ 5.1758e-02 -3.6163e-02 -1.7872e-03]
   [-5.1605e-02  3.5107e-01 -1.4624e-01]]

  [[ 2.7283e-02  9.3765e-03  6.0394e-02]
   [ 1.4481e-02 -1.3098e-01 -1.1499e-01]
   [-7.3481e-04  3.6328e-01  1.1438e-01]]]


 [[[ 1.7242e-02  2.1805e-02 -2.7695e-02]
   [ 4.3831e-03  8.8549e-04  2.6703e-03]
   [ 7.5607e-03 -5.1941e-02  2.6932e-02]]

  [[-2.9697e-03  8.2159e-04  3.9520e-02]
   [ 1.6205e-02 -9.0698e-02  1.8524e-02]
   [ 4.5532e-02 -4.7058e-02  1.5210e-01]]

  [[-1.8356e-02 -4.0412e-04 -4.8431e-02]
   [ 1.7685e-02  2.2873e-02  8.4167e-02]
   [-5.1849e-02  1.4233e-01  4.0869e-01]]]


 [[[-6.2103e-02  4.2450e-02 -2.5177e-02]
   [ 4.4037e-02  2.4243e-01 -2.3651e-02]
   [-7.4890e-02  7.9224e-02 -1.8018e-01]]

  [[-1.5656e-02  1.1609e-01 -6.3599e-02]
   [ 7.2388e-02 -1.3586e-01  7.4707e-02]
   [ 3.3203e-02  3.2745e-02 -3.0334e-02]]

  [[ 1.4267e-02  1.2703e-02  5.3558e-02]
   [ 3.1519e-04 -2.8906e-01  1.5503e-01]
   [ 4.0527e-02 -3.7170e-02  1.6797e-01]]]


 [[[ 7.0877e-03 -8.9188e-03  2.0752e-02]
   [-7.7705e-03 -6.2866e-02 -6.0089e-02]
   [ 2.4185e-02  5.2948e-02  4.5700e-03]]

  [[ 8.7051e-03  3.1700e-03 -3.0518e-02]
   [-2.7939e-02  3.9029e-04 -2.0615e-02]
   [-3.2806e-02  2.3547e-01 -8.1116e-02]]

  [[-2.2705e-02 -6.9237e-04 -4.2076e-03]
   [-1.2070e-02  3.0457e-02  2.8259e-02]
   [ 2.8885e-02  1.4172e-01 -1.0663e-01]]]


 [[[ 8.3374e-02 -1.8152e-01 -2.4438e-01]
   [ 1.6821e-01  1.0974e-01 -2.6758e-01]
   [-1.4380e-01  4.3750e-01  2.2278e-02]]

  [[-3.7018e-02  1.2622e-01  8.5632e-02]
   [-1.1981e-01 -1.2244e-01  1.5259e-01]
   [ 8.5205e-02 -1.4600e-01 -2.7664e-02]]

  [[-1.5063e-01  3.1519e-01  3.1372e-01]
   [-2.3267e-01 -1.9873e-01  3.9355e-01]
   [ 1.0089e-01 -4.8169e-01 -8.0627e-02]]]


 [[[ 4.5466e-04  6.3858e-03 -4.2023e-02]
   [ 2.8809e-02  1.5308e-01  5.6030e-02]
   [-9.9030e-03  4.6753e-02  3.3752e-02]]

  [[ 6.6147e-03  4.7874e-03  5.8807e-02]
   [-3.4241e-02  2.1143e-01 -1.4984e-02]
   [ 9.0485e-03 -4.0100e-02 -2.5024e-01]]

  [[-2.8397e-02  2.6871e-02 -6.2805e-02]
   [-1.1032e-02  2.4231e-01  7.4951e-02]
   [-2.9068e-02  9.8938e-02  1.7700e-01]]]


 [[[ 8.3984e-02  1.8219e-02  2.4854e-01]
   [-3.2812e-01 -2.9639e-01  2.2009e-01]
   [ 9.4833e-03 -1.4725e-03 -1.7975e-02]]

  [[ 6.6895e-02 -1.3649e-02  6.0608e-02]
   [-1.2866e-01 -1.0559e-01  9.3918e-03]
   [ 3.4058e-02 -3.5095e-02  9.8206e-02]]

  [[-1.6748e-01  1.1688e-01 -2.1948e-01]
   [ 2.3169e-01  2.7490e-01 -1.0760e-01]
   [-6.0944e-02  2.8015e-02 -7.1960e-02]]]


 [[[-6.6719e-03 -2.7496e-02 -6.4148e-02]
   [-2.6188e-03  7.2571e-02  2.6172e-01]
   [-4.1168e-02  8.1360e-02  1.5173e-01]]

  [[ 1.3657e-02 -4.2992e-03  1.4359e-02]
   [ 4.0436e-02 -1.2524e-01  2.7954e-01]
   [ 1.3512e-02 -5.9776e-03 -1.4661e-01]]

  [[ 1.9083e-03  4.7485e-02 -6.2027e-03]
   [ 4.4220e-02 -7.3730e-02  1.0278e-01]
   [ 2.8976e-02  9.7046e-03 -7.9870e-04]]]


 [[[-4.8981e-03 -1.2527e-02 -1.2245e-02]
   [ 4.9927e-02  7.6050e-02  4.5410e-02]
   [ 1.7715e-02 -7.2327e-02 -8.0872e-02]]

  [[ 2.3590e-02 -1.8738e-02  3.1250e-02]
   [ 2.6306e-02  5.5328e-02  1.7334e-02]
   [ 1.1127e-01 -3.8770e-01  3.1921e-02]]

  [[ 1.4048e-03  1.6022e-02  1.3451e-02]
   [-1.3222e-02  4.5227e-02 -1.6689e-03]
   [ 3.5797e-02 -1.5039e-01 -7.8812e-03]]]


 [[[ 1.7609e-02 -4.3488e-02  4.2603e-02]
   [ 4.1199e-02 -6.9763e-02  3.9154e-02]
   [ 3.6411e-03  7.7105e-04 -1.3840e-02]]

  [[ 3.8361e-02 -1.8066e-02 -9.4080e-04]
   [ 4.6692e-02 -1.5112e-01  2.2131e-01]
   [-1.2573e-02 -5.7678e-02 -2.7222e-02]]

  [[-3.6987e-02  1.5442e-02  1.0628e-02]
   [-8.8730e-03 -3.0197e-02  8.3496e-02]
   [ 4.9377e-02 -8.2336e-02  2.8320e-02]]]


 [[[-1.9568e-01  1.5869e-01  9.1400e-03]
   [-1.1652e-01 -5.0354e-04 -2.5635e-01]
   [-1.6113e-01  5.1666e-02  2.3462e-01]]

  [[-3.0807e-02  1.6418e-02  2.6672e-02]
   [-1.0187e-01  1.4183e-02  3.8788e-02]
   [-1.4328e-02 -9.9548e-02  5.5786e-02]]

  [[ 2.2583e-01 -1.6309e-01 -2.4994e-02]
   [ 1.6296e-01 -4.0009e-02  2.1130e-01]
   [ 1.6931e-01  6.1127e-02 -2.6587e-01]]]


 [[[-6.4564e-04  2.8286e-03 -4.2458e-03]
   [ 7.0610e-03  5.6885e-02  2.7420e-02]
   [ 1.5364e-03 -4.8950e-02 -7.5623e-02]]

  [[-1.8600e-02  3.9597e-03 -9.3323e-02]
   [ 5.1994e-03  3.0762e-01  2.0068e-01]
   [-7.2021e-02  1.4099e-01  1.3367e-01]]

  [[ 3.7292e-02 -1.2833e-02  4.2053e-02]
   [-4.3121e-02  3.5370e-02  5.9174e-02]
   [ 4.8035e-02  3.6377e-02 -1.2842e-01]]]


 [[[-1.1871e-01  1.1591e-01  6.0768e-03]
   [-2.5436e-02  3.5954e-04  2.7206e-02]
   [-3.5889e-02  6.2744e-02 -4.1168e-02]]

  [[-1.7114e-01  1.1884e-01 -1.2922e-03]
   [ 7.2937e-02 -1.0635e-02  2.7637e-03]
   [ 1.6632e-02 -6.0303e-02  3.5858e-02]]

  [[-2.1643e-01  2.8491e-01 -3.5583e-02]
   [-4.8492e-02  2.1103e-02 -3.0930e-02]
   [ 3.9490e-02 -3.2471e-02  1.3054e-02]]]


 [[[ 3.2202e-01 -2.3889e-01 -2.5757e-01]
   [-2.6367e-01 -3.1763e-01  2.3840e-01]
   [-1.0083e-01  2.0898e-01  3.9551e-01]]

  [[ 1.8079e-01 -3.0945e-02 -1.1041e-01]
   [-1.2413e-02 -4.1724e-01  1.6638e-01]
   [-9.7229e-02  1.1908e-01  1.9775e-01]]

  [[-1.7822e-01  1.4087e-01  1.4575e-01]
   [ 1.5308e-01  1.3550e-01 -7.9651e-02]
   [-1.5083e-02 -2.8015e-02 -2.8931e-01]]]


 [[[-1.5549e-02 -1.5450e-02 -2.8656e-02]
   [ 5.7449e-03  1.6077e-01  1.2622e-01]
   [-3.5339e-02  1.1975e-01  2.0056e-01]]

  [[ 3.7880e-03  9.7427e-03  5.6061e-02]
   [ 7.3290e-04  9.7900e-02 -1.2317e-01]
   [-2.3575e-02  6.5002e-02  1.3965e-01]]

  [[-7.4425e-03  4.9866e-02  4.4647e-02]
   [ 1.4137e-02 -2.0385e-05 -1.6223e-01]
   [ 4.2328e-02  8.0490e-03  5.6061e-02]]]


 [[[ 3.8788e-02 -5.2032e-02 -2.1561e-02]
   [-1.0657e-01  1.0632e-01 -7.5607e-03]
   [ 4.9011e-02 -3.0212e-02  2.3026e-02]]

  [[ 8.6517e-03  4.3945e-02 -2.1179e-02]
   [ 6.6910e-03  2.4072e-01 -3.0469e-01]
   [ 7.8125e-03  4.8035e-02 -2.5040e-02]]

  [[-4.1992e-02  3.9215e-02  8.8196e-03]
   [ 7.0007e-02  2.8442e-01 -3.0835e-01]
   [-5.4840e-02  4.2603e-02 -4.8828e-02]]]


 [[[ 2.0485e-03 -2.1896e-02 -3.1525e-02]
   [-1.0963e-02  2.5406e-02  4.7974e-02]
   [ 1.5404e-02 -2.0615e-02 -2.5497e-02]]

  [[ 8.0185e-03 -4.5959e-02 -1.9495e-01]
   [ 1.9522e-03  3.4943e-02  1.8188e-01]
   [ 1.0452e-02 -1.1757e-02  1.0979e-02]]

  [[-2.7180e-03 -4.7607e-02 -1.4551e-01]
   [ 7.3738e-03  3.8605e-02  2.1436e-01]
   [-1.9608e-02 -1.0712e-02 -5.3284e-02]]]


 [[[-1.5612e-03  5.7373e-02 -5.9265e-02]
   [ 9.0942e-02 -3.0792e-02  4.1321e-02]
   [-8.0688e-02  2.9495e-02 -2.9449e-02]]

  [[ 5.8777e-02  3.3936e-02  6.4331e-02]
   [-6.1941e-04 -4.3896e-01  4.5929e-03]
   [ 4.4525e-02 -2.1801e-03  8.3313e-02]]

  [[-1.6434e-02  2.9282e-02  4.7394e-02]
   [-2.8091e-02 -1.3208e-01  2.1820e-02]
   [ 5.8655e-02 -1.4076e-02 -1.5671e-02]]]


 [[[ 4.1870e-02 -1.0699e-01  1.2335e-01]
   [-6.7627e-02 -1.3379e-01 -7.3547e-03]
   [ 4.3213e-02 -7.7095e-03  1.3025e-01]]

  [[-2.0142e-01  1.8945e-01 -1.3367e-01]
   [ 2.4902e-01  5.6152e-01  1.5656e-02]
   [-1.7700e-01  3.0914e-02 -4.5776e-01]]

  [[ 1.6724e-01 -1.3879e-01  9.8328e-02]
   [-1.8994e-01 -3.0566e-01 -1.0876e-01]
   [ 1.6553e-01 -4.1412e-02  5.2002e-01]]]


 [[[ 1.5430e-01 -2.0032e-01 -3.1812e-01]
   [ 1.8958e-01  1.5649e-01 -5.4004e-01]
   [-1.4124e-01  3.8818e-01  2.7661e-01]]

  [[ 7.3303e-02 -1.1023e-01 -7.8308e-02]
   [ 8.5449e-02  4.3488e-02 -2.2742e-01]
   [-4.4739e-02  1.5759e-01  9.3445e-02]]

  [[-1.2219e-01  8.4763e-03  2.3425e-01]
   [-9.0637e-02  6.1066e-02  3.2397e-01]
   [ 8.0994e-02 -3.0591e-01 -1.8677e-01]]]


 [[[ 3.3234e-02 -1.5478e-03 -7.3624e-03]
   [-1.1246e-02 -4.8737e-02  2.3987e-02]
   [-7.7698e-02  4.6143e-02  1.0490e-02]]

  [[-1.1597e-02 -5.4565e-02  1.0498e-02]
   [-1.4175e-02 -4.4922e-02  1.7859e-01]
   [ 6.7635e-03 -1.6739e-02 -2.1835e-02]]

  [[-2.5024e-02 -2.1805e-02 -3.0533e-02]
   [-9.9411e-03  3.6774e-02  2.5024e-01]
   [ 3.3905e-02 -5.5206e-02 -7.0007e-02]]]


 [[[ 1.1536e-01  4.3304e-02 -1.4441e-01]
   [-1.6431e-01  1.3098e-01  5.9509e-02]
   [ 7.5623e-02 -2.1582e-01  1.0205e-01]]

  [[ 1.3098e-01  2.1637e-02 -1.4331e-01]
   [-1.7883e-01  2.3865e-01  4.9530e-02]
   [-5.7526e-02 -1.4124e-01  7.9651e-02]]

  [[ 6.7261e-02  2.6917e-02 -1.2915e-01]
   [-1.2610e-01  1.9629e-01 -3.8338e-03]
   [-5.3223e-02 -3.3508e-02  4.9286e-02]]]


 [[[-3.7720e-02 -8.3618e-02  3.1934e-01]
   [-4.1687e-02 -1.0229e-01  1.7346e-01]
   [ 3.4821e-02 -1.9751e-01 -8.0078e-02]]

  [[ 4.4983e-02 -6.8474e-04 -1.5540e-01]
   [ 2.0630e-02  6.9031e-02 -5.2185e-02]
   [-2.5425e-03  5.0323e-02  2.9175e-02]]

  [[ 5.5267e-02 -7.3669e-02 -3.0640e-01]
   [ 1.2347e-01  1.6467e-01 -3.1958e-01]
   [-6.2225e-02  2.6758e-01  1.2781e-01]]]


 [[[-4.3140e-01 -5.2100e-01  2.9175e-01]
   [ 2.1033e-01 -4.3091e-01  9.8584e-01]
   [-3.7292e-02 -2.8052e-01 -5.0586e-01]]

  [[-7.3389e-01  8.4351e-02 -3.2300e-01]
   [ 2.1069e-01 -2.5830e-01  8.2703e-02]
   [-1.4099e-01 -6.6795e-03 -3.5095e-02]]

  [[-7.4512e-01  5.5127e-01 -5.3662e-01]
   [-3.1543e-01  1.6626e-01 -7.1338e-01]
   [-1.3562e-01  3.1128e-01  6.2561e-02]]]


 [[[-2.3730e-01  4.1724e-01 -1.4612e-01]
   [-6.8604e-01  4.9585e-01 -1.0459e+00]
   [-2.5848e-02  1.4209e+00 -1.4678e+00]]

  [[-7.9346e-01 -3.3960e-01 -2.5195e-01]
   [-2.4719e-01  2.4866e-01  1.0205e-01]
   [-5.0879e-01 -1.0852e-01 -3.7183e-01]]

  [[ 1.6418e-01 -4.7412e-01 -4.4983e-02]
   [ 3.3301e-01 -3.7280e-01  1.8469e-01]
   [-6.0449e-01 -1.1191e+00  5.7959e-01]]]


 [[[-8.0017e-02  1.6528e-01 -4.8645e-02]
   [ 1.4514e-01  3.1348e-01  9.7290e-02]
   [-5.6229e-03  2.9587e-02 -6.4453e-01]]

  [[ 2.3035e-01 -3.7598e-01  1.5540e-01]
   [-3.4229e-01 -5.5469e-01 -9.7046e-02]
   [ 8.5999e-02  1.5831e-03  9.3018e-01]]

  [[-1.5332e-01  2.0471e-01 -1.0730e-01]
   [ 1.9653e-01  2.4646e-01 -2.3727e-02]
   [-8.2214e-02 -5.7892e-02 -2.5488e-01]]]]

Layer: network.conv1.weight
[[[[-8.7769e-02 -7.3669e-02 -5.8228e-02]
   [-8.1970e-02 -6.3293e-02 -1.2256e-01]
   [-7.1167e-02 -6.8542e-02 -1.0394e-01]]

  [[ 1.0864e-02  7.6246e-04 -3.7872e-02]
   [ 1.1162e-02 -4.8981e-02 -2.4582e-02]
   [-2.2327e-01 -7.3364e-02 -7.5912e-03]]

  [[-1.3069e-02  5.1575e-03 -2.9236e-02]
   [-1.0582e-02  3.3813e-01 -8.0078e-02]
   [ 2.8397e-02  3.4729e-02 -1.9299e-01]]

  ...

  [[ 1.6174e-01 -3.7323e-02 -7.2998e-02]
   [ 7.8979e-02 -2.8491e-01  2.8271e-01]
   [-1.3135e-01 -6.5820e-01 -1.4014e-01]]

  [[ 3.2349e-01 -6.7749e-02  1.9629e-01]
   [ 2.7661e-01  1.4336e+00  1.9556e-01]
   [ 6.7078e-02 -1.2535e-02 -1.7139e-01]]

  [[-2.2144e-01 -2.8198e-01 -9.8816e-02]
   [-3.1592e-01  1.0571e-01 -1.3809e-02]
   [-1.6174e-01 -1.6516e-01 -1.2128e-01]]]


 [[[ 1.3354e-01  1.0124e-02  1.3074e-01]
   [ 1.0840e-01  1.9202e-01  5.0293e-01]
   [ 1.1218e-01  4.9048e-01  4.6875e-01]]

  [[ 2.3575e-02 -1.2659e-01  3.0090e-02]
   [-3.7036e-01  1.0518e+00  4.1772e-01]
   [ 1.5857e-01  5.5371e-01 -2.1948e-01]]

  [[ 5.4779e-02  1.5967e-01 -1.9974e-02]
   [ 8.4839e-02  8.3679e-02 -1.2292e-01]
   [-1.0962e-01 -2.6050e-01 -1.1945e-01]]

  ...

  [[-1.5344e-01  4.0186e-01  2.3218e-01]
   [ 7.4036e-02 -3.9734e-02 -4.3530e-01]
   [-3.2166e-02 -6.2805e-02 -1.2598e+00]]

  [[-4.7455e-02  3.9160e-01  2.3096e-01]
   [ 9.0942e-02  2.0837e-01 -2.9736e-01]
   [ 1.0895e-01 -4.7021e-01 -1.4392e-01]]

  [[-6.8665e-02 -8.3557e-02 -2.3938e-01]
   [ 8.5373e-03  6.2695e-01  2.7539e-01]
   [-1.4087e-01  3.1543e-01 -2.5879e-01]]]


 [[[-2.6108e-02 -3.2471e-02  6.2561e-02]
   [-3.8208e-02 -9.6008e-02  3.5767e-01]
   [-6.1310e-02 -3.5980e-02 -7.4890e-02]]

  [[-8.3801e-02  7.0618e-02  2.2339e-01]
   [-1.3599e-01 -2.6709e-01  2.1167e-01]
   [ 7.1838e-02  4.8615e-02  1.0236e-01]]

  [[ 9.7046e-02 -8.1726e-02  8.2520e-02]
   [-3.8391e-02  4.3555e-01 -7.9980e-01]
   [ 1.3580e-03 -1.1047e-01  1.1371e-01]]

  ...

  [[-1.9699e-02 -2.1118e-02  2.1057e-01]
   [ 1.4270e-01  1.1780e-01 -9.1602e-01]
   [-8.6975e-03  1.6028e-01 -6.5674e-01]]

  [[ 3.6591e-02  9.9121e-02 -7.5244e-01]
   [ 1.2274e-01  2.3270e-02 -1.0996e+00]
   [ 1.7737e-01  2.2644e-01  3.4363e-02]]

  [[-4.9377e-02 -2.0703e-01  1.1292e-01]
   [ 1.3062e-02  5.7220e-02 -1.1520e-02]
   [-1.8265e-02 -4.3396e-02  1.1676e-01]]]


 ...


 [[[-1.3062e-01  6.3086e-01  4.5630e-01]
   [ 1.8665e-01  1.3906e+00 -1.7322e-01]
   [ 2.9068e-03 -8.9417e-03 -7.1533e-02]]

  [[-1.3161e-02  5.0537e-01  1.0872e-02]
   [-1.9861e-01 -2.3022e-01 -8.7051e-03]
   [-1.8164e-01 -9.9792e-02 -1.7322e-01]]

  [[ 1.2262e-01 -3.5864e-01 -4.1577e-01]
   [-7.3425e-02 -1.1786e-01  1.0168e-01]
   [ 5.1117e-02  1.5833e-01  2.9980e-01]]

  ...

  [[ 3.3716e-01  6.4502e-01  2.1774e-02]
   [-7.5989e-02 -3.6670e-01  2.4902e-02]
   [ 4.5532e-02  2.2083e-01 -4.5435e-01]]

  [[ 1.2524e-01  6.8164e-01 -4.5093e-01]
   [-2.6215e-02  1.2347e-01  5.6152e-01]
   [ 3.1836e-01  1.6968e-01  1.9043e-02]]

  [[-1.1542e-01  2.2070e+00 -7.9895e-02]
   [ 4.2773e-01  9.3933e-02 -1.3618e-02]
   [ 3.5919e-02 -1.5491e-01 -1.8274e-01]]]


 [[[ 4.1290e-02 -5.3864e-02  8.3374e-02]
   [-9.8450e-02 -7.9834e-02 -1.7566e-01]
   [-5.1910e-02 -9.9854e-02 -6.8130e-03]]

  [[ 1.8042e-01  4.0039e-01  2.3303e-01]
   [ 6.7822e-01  5.8789e-01  1.1670e-01]
   [-1.3940e-01 -1.7798e-01  6.6345e-02]]

  [[-5.4138e-02 -4.9341e-01 -9.0881e-02]
   [-6.0730e-02 -1.1260e+00 -6.8909e-02]
   [ 1.1151e-01  2.7026e-01  1.0718e-01]]

  ...

  [[ 3.6377e-01  1.3452e-01 -1.2744e-01]
   [-3.7622e-01 -2.9468e-01 -1.8225e-01]
   [-1.6113e-02 -8.4961e-02 -1.9928e-02]]

  [[-2.0859e-02 -8.1360e-02 -4.8981e-02]
   [-1.5491e-01  3.7354e-01  1.6797e-01]
   [ 2.2668e-01  2.1619e-01  2.1350e-01]]

  [[-3.3374e-01 -1.3245e-01 -2.3279e-01]
   [-3.0289e-02  1.9629e-01 -1.6345e-01]
   [-7.0740e-02 -3.1982e-02 -1.2213e-01]]]


 [[[ 1.2543e-02  3.7415e-02 -1.3275e-02]
   [ 8.3374e-02  8.7036e-02  1.5312e-02]
   [ 8.0322e-02 -7.2266e-02  2.6810e-02]]

  [[-4.9438e-02  1.2794e-02  3.3203e-02]
   [ 9.0454e-02 -9.0393e-02 -4.2908e-02]
   [ 2.5940e-02 -9.0820e-02  6.2286e-02]]

  [[ 1.0272e-01 -7.6790e-03  3.0899e-02]
   [-4.4373e-02 -8.0933e-02  2.5806e-01]
   [-4.7569e-03  2.8809e-01 -1.6504e-01]]

  ...

  [[-6.3171e-02 -4.0703e-03 -2.3712e-02]
   [ 5.6824e-02  1.2610e-01  5.7953e-02]
   [-5.3986e-02  3.9355e-01 -7.6807e-01]]

  [[-1.0016e-01  2.4194e-01  8.5938e-02]
   [-2.8662e-01 -2.2681e-01 -3.6426e-01]
   [-9.9915e-02  2.8174e-01  3.8971e-02]]

  [[ 1.2390e-01  5.9814e-02  4.1534e-02]
   [ 3.2129e-01  2.5146e-01 -5.2917e-02]
   [ 1.9287e-02  1.3147e-01  5.1056e-02]]]]

Layer: network.conv2.weight
[[[[-3.2935e-01 -2.3636e-02 -1.2396e-01]
   [-1.1377e-01 -6.3330e-01 -4.7180e-02]
   [-9.2896e-02  4.1595e-02  1.7993e-01]]

  [[-3.5645e-01  3.7573e-01 -1.3107e-02]
   [ 3.7720e-02  1.9666e-01 -4.4373e-02]
   [-3.0334e-02  1.0468e-01 -5.5389e-02]]

  [[ 4.0985e-02  6.6895e-02  1.4282e-02]
   [-1.9409e-01 -5.5206e-02 -3.4027e-02]
   [-4.2334e-01  1.7175e-01  6.2752e-03]]

  ...

  [[-1.2222e-02  1.0291e-01  1.9669e-02]
   [ 4.6997e-02 -3.1226e-01 -1.3257e-01]
   [-1.4197e-01  2.1741e-01 -3.0249e-01]]

  [[ 2.1866e-02  1.5784e-01  2.8015e-02]
   [-3.0991e-02  1.8779e+00  3.3207e-03]
   [ 1.9360e-01 -1.6562e+00  1.3367e-01]]

  [[-1.3086e-01  1.1774e-01  5.2795e-02]
   [ 7.6828e-03  2.2498e-01 -1.0645e-01]
   [ 6.4453e-02  3.0457e-02  1.5717e-02]]]


 [[[-8.4076e-03 -2.7786e-02 -8.1177e-02]
   [ 1.8753e-02  2.0850e-01  6.6284e-02]
   [ 5.7739e-02  3.4058e-02 -5.2155e-02]]

  [[-3.7628e-02 -2.1631e-01 -5.4779e-02]
   [ 2.6538e-01 -4.9878e-01 -2.3254e-01]
   [ 9.1553e-02 -1.3538e-01 -2.1378e-02]]

  [[-1.1371e-01 -8.2397e-03 -3.3539e-02]
   [ 9.6497e-02  7.3059e-02 -8.5327e-02]
   [-8.3435e-02 -2.8638e-01 -1.8173e-02]]

  ...

  [[ 2.5742e-02  7.8674e-02  6.9336e-02]
   [-1.5112e-01 -6.7041e-01 -2.1448e-01]
   [ 3.7170e-02 -9.1614e-02 -1.0272e-01]]

  [[-3.3905e-02 -8.4412e-02 -5.1025e-02]
   [ 1.8640e-01 -3.1836e-01 -3.1464e-02]
   [ 6.4270e-02  6.2500e-01  5.5664e-01]]

  [[-8.7128e-03 -4.8737e-02 -7.2479e-03]
   [ 3.6560e-02  1.9263e-01  2.7237e-02]
   [ 2.6367e-02 -9.5154e-02 -1.3725e-02]]]


 [[[-3.7551e-04  2.1652e-02  9.3384e-02]
   [-4.5166e-02  5.3467e-01  1.5649e-01]
   [-5.6335e-02 -1.2683e-01  1.3464e-01]]

  [[-1.9604e-01 -2.3486e-01 -1.1725e-01]
   [-1.6614e-01  2.5073e-01 -2.5562e-01]
   [-5.5359e-02 -1.9196e-02 -2.2290e-01]]

  [[-1.7960e-02 -3.3936e-02 -6.5552e-02]
   [ 6.6650e-01  2.8101e-01 -1.4380e-01]
   [-2.0166e-01  4.7546e-02  6.6284e-02]]

  ...

  [[-8.7036e-02  9.4055e-02 -5.7190e-02]
   [-4.9957e-02 -5.9766e-01 -3.1860e-02]
   [-5.7373e-02 -2.3486e-01 -1.7322e-01]]

  [[ 3.4119e-02  7.9834e-02  2.0248e-02]
   [ 7.4524e-02  1.4252e-02 -1.6809e-01]
   [ 9.4116e-02 -9.5703e-02  3.2593e-01]]

  [[-1.3757e-01  2.6245e-01  1.5161e-01]
   [ 1.5112e-01  2.7002e-01 -1.1890e-01]
   [-6.1371e-02 -2.4757e-03  2.3895e-02]]]


 ...


 [[[ 4.9652e-02 -1.2524e-01 -1.8506e-01]
   [ 3.7231e-02 -3.2227e-01 -4.9782e-03]
   [-1.8396e-03  1.8890e-02 -3.3081e-02]]

  [[-5.7281e-02 -1.8295e-02 -4.1652e-04]
   [-2.7435e-02 -3.8177e-02  1.3916e-02]
   [ 2.0275e-03  3.0746e-03  1.5965e-03]]

  [[-2.3209e-02 -1.2337e-02 -1.5747e-02]
   [-4.2114e-02 -1.2341e-01 -2.1698e-02]
   [-2.9392e-03 -4.5349e-02 -1.9287e-02]]

  ...

  [[-1.6006e-02 -1.5793e-02  5.5847e-03]
   [-5.0125e-03  1.1200e-02 -1.7883e-02]
   [ 2.7267e-02  4.1595e-02  1.5007e-02]]

  [[-4.8790e-03 -2.8944e-04 -1.5221e-02]
   [-3.1128e-02 -7.2250e-03 -2.7435e-02]
   [ 2.1225e-02  4.5959e-02  5.0888e-03]]

  [[-7.4806e-03  6.5735e-02 -1.5289e-02]
   [-5.3864e-03  3.5217e-02  4.4098e-02]
   [ 9.3155e-03  1.3588e-02  6.7101e-03]]]


 [[[-1.4114e-02 -1.2688e-02 -2.1149e-02]
   [-9.4452e-03  6.6309e-01  1.2549e-01]
   [-1.3680e-02 -3.3722e-02  9.9945e-03]]

  [[ 2.5146e-02 -1.5541e-02 -1.1368e-02]
   [ 1.5205e-02 -2.0294e-02  2.1271e-02]
   [ 2.0370e-02 -1.1269e-02  6.1512e-04]]

  [[ 9.2926e-03 -1.0849e-02 -8.2779e-03]
   [ 3.1799e-02 -9.5642e-02 -1.1253e-02]
   [-3.4454e-02 -2.5726e-02 -8.8654e-03]]

  ...

  [[-1.0857e-02 -1.1711e-02  3.0861e-03]
   [ 1.8219e-02  7.7896e-03 -6.4812e-03]
   [-1.3214e-02  1.0870e-01  3.0624e-02]]

  [[-1.3496e-02  4.1084e-03 -1.9501e-02]
   [-1.2741e-02 -1.6003e-03 -1.8860e-02]
   [ 1.2245e-02 -1.1932e-02  2.5223e-02]]

  [[-3.5065e-02  5.5817e-02  4.7150e-03]
   [-2.2385e-02  5.7373e-02  2.7664e-02]
   [-7.6866e-03 -3.2684e-02 -5.9090e-03]]]


 [[[-3.8025e-02  5.2452e-03 -1.6876e-02]
   [-4.9362e-03  3.3691e-02 -1.3721e-01]
   [-1.7593e-02 -9.7595e-02  8.2336e-02]]

  [[ 3.3600e-02 -5.0537e-02 -1.4771e-02]
   [-7.8186e-02  1.9608e-02 -5.9166e-03]
   [-1.3412e-02 -1.9974e-02 -4.7073e-03]]

  [[ 1.1307e-02  1.5671e-02  9.1476e-03]
   [-6.0730e-03  2.1286e-02  1.5434e-02]
   [-4.2023e-02  8.6609e-02  3.1113e-02]]

  ...

  [[ 2.5406e-02 -3.0994e-03  3.9673e-03]
   [ 4.3640e-03 -5.9448e-02  7.3433e-03]
   [-1.7563e-02 -7.9590e-01  1.4160e-02]]

  [[-1.1139e-02 -7.1907e-03 -2.3239e-02]
   [-2.2354e-02 -5.0079e-02 -3.4485e-02]
   [-1.3329e-02 -5.2595e-04  5.0903e-02]]

  [[-4.2572e-03  3.6194e-02 -1.8326e-02]
   [ 4.9553e-03 -6.4941e-02 -4.2450e-02]
   [ 1.6418e-02 -1.1029e-01 -1.1536e-02]]]]

Layer: network.conv_out.weight
[[[[-2.1896e-03 -5.6419e-03  9.5654e-04]
   [ 1.7262e-03  5.0568e-02 -2.9526e-03]
   [ 3.1013e-03  5.1155e-03  1.9729e-05]]

  [[-7.5798e-03 -4.2496e-03  9.4366e-04]
   [-3.3447e-02 -2.5146e-02  7.1144e-04]
   [-5.9509e-03 -2.5539e-03  1.8883e-03]]

  [[-1.6174e-02 -1.1589e-02  1.5039e-03]
   [-4.0344e-02 -5.2216e-02  2.0561e-03]
   [-3.6945e-03 -2.6627e-03 -1.3790e-03]]

  ...

  [[ 7.3662e-03 -3.1281e-02 -1.3666e-03]
   [ 1.6101e-01 -2.2934e-02  1.6815e-02]
   [ 1.3405e-02  1.7181e-02 -5.7602e-03]]

  [[-1.5480e-02  1.5027e-01  1.9287e-02]
   [-3.2379e-02  2.6611e-01  7.9651e-03]
   [-5.8794e-04  2.7008e-02 -1.3229e-02]]

  [[ 4.2175e-02  3.3844e-02 -1.1292e-02]
   [-1.6708e-02 -1.8631e-02  7.0152e-03]
   [ 3.0899e-04 -2.0103e-03  5.9891e-03]]]


 [[[-2.8000e-03 -5.6763e-03  1.5821e-03]
   [ 1.0777e-03  4.5715e-02  2.7122e-03]
   [ 1.3542e-03  4.2763e-03  2.2526e-03]]

  [[-5.2147e-03 -7.2174e-03  6.3181e-04]
   [-1.2856e-02 -4.7455e-02  4.7379e-03]
   [-5.0430e-03 -2.1000e-03  1.1530e-03]]

  [[-8.0795e-03 -1.3628e-03 -5.5456e-04]
   [-5.5275e-03 -1.1375e-02 -3.5048e-04]
   [-1.7338e-03 -5.1796e-05 -3.4256e-03]]

  ...

  [[ 8.8120e-03 -8.8024e-04 -3.1710e-04]
   [ 5.9998e-02  3.2867e-02  3.2318e-02]
   [ 1.7273e-04  2.7023e-02 -1.6298e-03]]

  [[ 1.1940e-02  1.5552e-01  4.3060e-02]
   [ 2.3537e-03  2.8369e-01  2.2614e-02]
   [ 1.1673e-02  7.0343e-03  2.8801e-04]]

  [[ 3.1891e-03  5.9723e-02 -2.0599e-02]
   [-2.3102e-02 -3.1342e-02  7.7705e-03]
   [-2.6951e-03 -5.1737e-04  1.1444e-02]]]


 [[[-3.1013e-03 -3.8757e-03 -1.2674e-03]
   [ 4.4417e-04  3.7659e-02  9.5367e-03]
   [ 1.0788e-04  4.6501e-03  3.3646e-03]]

  [[-5.1422e-03 -5.5046e-03  1.2612e-04]
   [-4.2305e-03 -6.5369e-02  6.4850e-03]
   [-5.6496e-03  7.5197e-04 -7.7915e-04]]

  [[-6.7062e-03  1.3901e-02 -1.3494e-03]
   [ 1.3474e-02  6.6101e-02  4.3526e-03]
   [ 9.9754e-04  2.8534e-03 -3.3207e-03]]

  ...

  [[ 1.4429e-03  4.9324e-03 -1.9531e-02]
   [ 1.6296e-02  1.2323e-01  1.6769e-02]
   [ 2.7523e-03  2.3331e-02  6.5536e-03]]

  [[ 9.8495e-03  1.0205e-01  4.4830e-02]
   [-1.4183e-02  2.2998e-01  1.2352e-02]
   [ 1.1925e-02  6.3019e-03  7.1678e-03]]

  [[-1.1162e-02  7.4768e-02 -2.2751e-02]
   [-1.7654e-02 -2.6840e-02  1.8188e-02]
   [-4.5357e-03 -4.8332e-03  1.8646e-02]]]


 ...


 [[[-1.3046e-03  3.4599e-03  1.6727e-03]
   [ 3.2768e-03  2.4414e-02  7.6141e-03]
   [ 1.7214e-03  8.0442e-04  5.4283e-03]]

  [[-2.0390e-03 -4.2610e-03  1.4436e-04]
   [-5.9280e-03 -7.1472e-02  1.7967e-03]
   [ 5.6839e-03  4.8065e-04  7.2174e-03]]

  [[ 5.3740e-04  1.0767e-03 -2.1338e-04]
   [-2.1439e-03  8.3466e-03 -4.6396e-04]
   [ 3.9787e-03  5.4657e-02  6.5498e-03]]

  ...

  [[ 2.7027e-03 -2.7496e-02  5.9776e-03]
   [-1.0460e-02  6.7688e-02 -3.0396e-02]
   [ 2.5803e-02  2.5055e-02 -2.6566e-02]]

  [[-9.4891e-04  2.6855e-03  1.9283e-03]
   [-3.1113e-02  1.0004e-01 -9.7229e-02]
   [-3.7994e-03  6.4941e-02 -4.8584e-02]]

  [[ 2.1210e-02 -2.1317e-02 -2.0638e-03]
   [-3.3203e-02 -2.1204e-01  5.0842e-02]
   [ 2.1114e-03  1.0669e-01  5.6122e-02]]]


 [[[-1.5182e-03  4.0665e-03  8.2552e-05]
   [ 4.0283e-03  1.2695e-02  1.7654e-02]
   [ 6.9046e-04  4.5891e-03  3.4351e-03]]

  [[-1.1009e-04 -5.2567e-03 -1.3924e-03]
   [ 2.9392e-03 -6.8420e-02 -2.3117e-03]
   [ 4.4975e-03  7.2021e-03  6.6948e-03]]

  [[-4.5657e-04  3.5248e-03  2.8086e-04]
   [ 5.3482e-03 -1.8021e-02 -7.5760e-03]
   [-6.0272e-03 -2.5635e-02 -1.3428e-02]]

  ...

  [[ 2.2221e-03 -3.4771e-03 -3.1071e-03]
   [-8.0442e-04 -4.5662e-03  6.9695e-03]
   [ 3.1464e-02 -1.6495e-02 -2.5768e-03]]

  [[ 4.2105e-04  1.8265e-02 -5.1956e-03]
   [-3.1982e-02  7.8186e-02 -9.9487e-02]
   [-2.3842e-03  4.2053e-02 -6.3110e-02]]

  [[ 1.4153e-02 -1.1215e-02 -7.7515e-03]
   [-1.0490e-02 -2.5049e-01  4.5990e-02]
   [ 1.1490e-02  4.7668e-02  1.0138e-01]]]


 [[[-1.0214e-03  2.3155e-03  2.0256e-03]
   [ 4.6959e-03  3.8171e-04  3.2135e-02]
   [-1.6391e-05  5.0774e-03  5.6381e-03]]

  [[ 7.4959e-04 -6.3705e-03  1.3447e-04]
   [ 5.9128e-03 -6.3904e-02 -1.2764e-02]
   [ 2.2812e-03  1.1162e-02  6.4583e-03]]

  [[ 6.9761e-04  1.6327e-03  4.2915e-03]
   [ 9.9487e-03 -2.4734e-02 -1.2260e-02]
   [-4.3907e-03 -6.8176e-02 -4.3579e-02]]

  ...

  [[ 2.5616e-03 -1.3351e-03 -1.3161e-02]
   [ 1.7166e-03 -1.7792e-02  7.8125e-02]
   [ 2.2278e-02  1.0538e-03  8.2825e-02]]

  [[-3.3398e-03  1.5068e-02  9.6359e-03]
   [-1.9989e-02  7.5134e-02  4.1046e-03]
   [ 2.2869e-03  2.7969e-02 -3.2104e-02]]

  [[ 8.8272e-03  4.1504e-03 -7.7772e-04]
   [-5.4512e-03 -2.2595e-01  3.6072e-02]
   [ 1.2161e-02  7.6561e-03  1.5076e-01]]]]

